Language model created by QuickLM on Thu Mar  9 17:11:03 EST 2017
Copyright (c) 1996-2010 Carnegie Mellon University and Alexander I. Rudnicky

The model is in standard ARPA format, designed by Doug Paul while he was at MITRE.

The code that was used to produce this language model is available in Open Source.
Please visit http://www.speech.cs.cmu.edu/tools/ for more information

The (fixed) discount mass is 0.5. The backoffs are computed using the ratio method.
This model based on a corpus of 4 sentences and 9 words

\data\
ngram 1=9
ngram 2=13
ngram 3=12

\1-grams:
-1.0000 </s> -0.3010
-1.0000 <s> -0.2304
-1.3010 DENG -0.2553
-1.6021 GWEN -0.2788
-1.3010 JIAN -0.2304
-1.6021 KAI -0.2788
-1.3010 XIAO -0.2788
-1.3010 ZAI -0.2788
-1.3010 ZHI -0.2304

\2-grams:
-0.9031 <s> GWEN 0.0000
-0.9031 <s> KAI 0.0000
-0.9031 <s> XIAO 0.0000
-0.9031 <s> ZAI 0.0000
-0.3010 DENG </s> -0.3010
-0.3010 GWEN DENG 0.0000
-0.6021 JIAN </s> -0.3010
-0.6021 JIAN XIAO 0.0000
-0.3010 KAI DENG 0.0000
-0.3010 XIAO ZHI 0.0000
-0.3010 ZAI JIAN 0.0000
-0.6021 ZHI </s> -0.3010
-0.6021 ZHI ZAI 0.0000

\3-grams:
-0.3010 <s> GWEN DENG
-0.3010 <s> KAI DENG
-0.3010 <s> XIAO ZHI
-0.3010 <s> ZAI JIAN
-0.3010 GWEN DENG </s>
-0.3010 JIAN XIAO ZHI
-0.3010 KAI DENG </s>
-0.6021 XIAO ZHI </s>
-0.6021 XIAO ZHI ZAI
-0.6021 ZAI JIAN </s>
-0.6021 ZAI JIAN XIAO
-0.3010 ZHI ZAI JIANG

\end\
